{
    "weights1": [
        [
            -0.08738464117050171,
            -0.036777153611183167,
            0.19996552169322968,
            0.11815859377384186,
            0.601624071598053,
            0.32648640871047974,
            0.017959261313080788,
            -0.312358021736145,
            0.24294506013393402
        ],
        [
            0.11642999947071075,
            -0.0397782176733017,
            0.08799672871828079,
            -0.5011192560195923,
            0.6521393656730652,
            -0.4657287299633026,
            0.011942190118134022,
            -0.01803169772028923,
            0.04428059980273247
        ],
        [
            -0.017590655013918877,
            0.0515931099653244,
            -0.3064728379249573,
            0.24396225810050964,
            0.5076606273651123,
            -0.8407288789749146,
            0.005686089862138033,
            0.32716143131256104,
            -0.21648752689361572
        ],
        [
            -0.013023010455071926,
            -0.00716573977842927,
            0.175270676612854,
            -0.672390878200531,
            -0.38281166553497314,
            -0.4279502332210541,
            0.07456793636083603,
            -0.19544243812561035,
            0.09099265187978745
        ],
        [
            0.23967783153057098,
            -0.03868117928504944,
            0.026032665744423866,
            0.5004841685295105,
            0.3547532856464386,
            0.06208392232656479,
            0.046963177621364594,
            0.01612759195268154,
            -0.13457363843917847
        ],
        [
            0.29278889298439026,
            0.03178189694881439,
            -0.015993788838386536,
            -0.5615084171295166,
            -0.03802329674363136,
            0.5298289656639099,
            0.08085335046052933,
            0.060088690370321274,
            -0.32108569145202637
        ]
    ],
    "bias1": [
        0.04082895442843437,
        -0.11505834758281708,
        0.110897496342659,
        -0.003146230708807707,
        0.06083817780017853,
        0.09366177022457123
    ],
    "weights2": [
        [
            -0.23672500252723694,
            0.0009108060621656477,
            -0.0618709959089756,
            0.6510674953460693,
            0.049388594925403595,
            -0.19504620134830475
        ],
        [
            0.7168235182762146,
            -0.15922027826309204,
            -0.09886889159679413,
            -0.34882688522338867,
            0.27279677987098694,
            0.1841285526752472
        ],
        [
            -0.034702252596616745,
            0.7092575430870056,
            0.5819747447967529,
            0.3331269323825836,
            -0.4159311354160309,
            0.2137507200241089
        ],
        [
            0.16418977081775665,
            0.2125765085220337,
            0.021000655367970467,
            0.12995992600917816,
            0.08094273507595062,
            -0.046928633004426956
        ],
        [
            0.7288133502006531,
            0.4862366020679474,
            0.14261433482170105,
            -0.5148809552192688,
            -0.6549869775772095,
            0.7344204187393188
        ],
        [
            -0.17564427852630615,
            -0.15983358025550842,
            -0.5355555415153503,
            -0.03223445639014244,
            -0.6097307801246643,
            0.6532251834869385
        ]
    ],
    "bias2": [
        -0.09372087568044662,
        0.05929071456193924,
        0.0567011833190918,
        0.39598706364631653,
        -0.18463297188282013,
        -0.05906885862350464
    ],
    "weightsOut": [
        [
            -0.09285005182027817,
            0.26756444573402405,
            -0.6764847040176392,
            -0.3024244010448456,
            -0.4047881066799164,
            -0.8324909210205078
        ],
        [
            -0.7144760489463806,
            0.2661024332046509,
            0.5176126956939697,
            0.09940727055072784,
            0.5236288905143738,
            -0.3975449800491333
        ],
        [
            -0.04614059627056122,
            0.5627811551094055,
            -0.39359453320503235,
            -0.6560572385787964,
            0.393485426902771,
            0.41882336139678955
        ],
        [
            0.5610606074333191,
            -0.1668861210346222,
            -0.30515700578689575,
            -0.41023412346839905,
            -0.3520456552505493,
            0.2526519000530243
        ],
        [
            -0.06183958798646927,
            0.434052973985672,
            -0.20644499361515045,
            -0.5993208289146423,
            -0.4259665310382843,
            -0.5079492330551147
        ],
        [
            -0.04604252800345421,
            -0.2624826431274414,
            -0.139916330575943,
            -0.051748380064964294,
            0.1110866591334343,
            -0.11250961571931839
        ]
    ],
    "biasOut": [
        -0.0055757444351911545,
        -0.09982649981975555,
        0.2753884494304657,
        0.21185562014579773,
        0.052317988127470016,
        -0.045972682535648346
    ],
    "input_min": [
        -0.999997,
        -0.999324,
        -0.971721,
        -0.999741,
        -0.999619,
        -1.0,
        -0.99996,
        -0.999766,
        -0.975614
    ],
    "input_max": [
        0.993967,
        0.999925,
        0.994535,
        0.99941,
        0.992824,
        0.999971,
        0.990082,
        0.978694,
        0.999806
    ],
    "target_min": [
        -2.856,
        -2.741,
        -0.881,
        -0.137,
        -0.145,
        -0.031
    ],
    "target_max": [
        2.594,
        2.969,
        5.049,
        0.137,
        0.145,
        0.037
    ]
}