{
    "weights1": [
        [
            0.12909361720085144,
            0.11512147635221481,
            0.562490701675415,
            -0.4064134955406189,
            0.035502396523952484,
            -0.43610653281211853,
            0.3754381239414215,
            -0.0770154818892479,
            -0.2117115706205368
        ],
        [
            -0.011891735717654228,
            0.08077942579984665,
            0.05414966493844986,
            0.5663444995880127,
            -0.5254155993461609,
            0.04232032597064972,
            0.1619250476360321,
            -0.1597331166267395,
            -0.03490665182471275
        ],
        [
            0.25138241052627563,
            0.020625034347176552,
            0.21777579188346863,
            -0.2975596487522125,
            0.0841093510389328,
            0.6801673769950867,
            0.1751803755760193,
            -0.09587070345878601,
            -0.10035193711519241
        ],
        [
            -0.021854978054761887,
            0.08866412937641144,
            0.07240944355726242,
            -0.606552243232727,
            -0.5623463988304138,
            -0.3257564306259155,
            0.1742711216211319,
            -0.09348984807729721,
            -0.022330140694975853
        ],
        [
            0.06210557371377945,
            -0.03545338660478592,
            -0.40483126044273376,
            0.3577345609664917,
            0.8965190649032593,
            -0.7659416198730469,
            -0.09495404362678528,
            0.1229010820388794,
            -0.01152265165001154
        ],
        [
            -0.15714602172374725,
            0.14496341347694397,
            0.09039846807718277,
            -0.11203557252883911,
            0.3572640120983124,
            0.1339907944202423,
            0.2925504148006439,
            -0.30526450276374817,
            -0.006887401919811964
        ]
    ],
    "bias1": [
        0.021060142666101456,
        -0.0094091035425663,
        0.14719641208648682,
        0.007093184627592564,
        0.010799079202115536,
        -0.37819379568099976
    ],
    "weights2": [
        [
            -0.04390646889805794,
            -0.5448258519172668,
            -0.3938378691673279,
            0.7331992983818054,
            -0.18590033054351807,
            -0.23498661816120148
        ],
        [
            0.2671842575073242,
            0.1514538675546646,
            -0.8626469373703003,
            -0.39148131012916565,
            0.05747231841087341,
            -0.5224144458770752
        ],
        [
            -0.4153926968574524,
            0.8199828863143921,
            0.4603709578514099,
            -0.4552432596683502,
            -0.45185139775276184,
            0.04522679001092911
        ],
        [
            -0.2174445241689682,
            -0.4414951503276825,
            0.09844423830509186,
            -0.12688609957695007,
            -0.23963001370429993,
            0.22237469255924225
        ],
        [
            0.4070497751235962,
            0.047195497900247574,
            -0.33480823040008545,
            -0.48105764389038086,
            0.5010262727737427,
            0.05207153782248497
        ],
        [
            -0.16429403424263,
            -0.11726583540439606,
            0.26728129386901855,
            -0.8179678916931152,
            -0.17455166578292847,
            0.3833180367946625
        ]
    ],
    "bias2": [
        -0.12255752831697464,
        0.2370486557483673,
        -0.018489964306354523,
        -0.14052273333072662,
        0.29689863324165344,
        0.2364114224910736
    ],
    "weightsOut": [
        [
            -0.37791579961776733,
            0.6108424663543701,
            0.7656763792037964,
            -0.6123552918434143,
            0.5342199802398682,
            0.06253022700548172
        ],
        [
            -0.08978450298309326,
            -0.37297582626342773,
            -0.5727199912071228,
            0.49961021542549133,
            0.7704380750656128,
            0.7695163488388062
        ],
        [
            0.029752861708402634,
            -0.29985958337783813,
            0.5047872066497803,
            0.5849634408950806,
            -0.13012740015983582,
            0.5270287394523621
        ],
        [
            0.0769907608628273,
            0.34097105264663696,
            0.3908763825893402,
            -0.284912109375,
            -0.5734074115753174,
            -0.5583925247192383
        ],
        [
            -0.5092106461524963,
            0.4958539605140686,
            0.41399556398391724,
            -0.24581994116306305,
            0.24574117362499237,
            -0.12005991488695145
        ],
        [
            -0.2906626760959625,
            0.2187841385602951,
            -0.06657373160123825,
            0.3713914752006531,
            -0.12317999452352524,
            -0.3132235109806061
        ]
    ],
    "biasOut": [
        -0.37689208984375,
        -0.06327389925718307,
        0.16829486191272736,
        0.05178367346525192,
        -0.26716601848602295,
        -0.05319180712103844
    ],
    "input_min": [
        -0.999997,
        -0.999324,
        -0.971721,
        -0.999741,
        -0.999619,
        -1.0,
        -0.99996,
        -0.999766,
        -0.975614
    ],
    "input_max": [
        0.993967,
        0.999925,
        0.994535,
        0.99941,
        0.992824,
        0.999971,
        0.990082,
        0.978694,
        0.999806
    ],
    "target_min": [
        -2.856,
        -2.741,
        -0.881,
        -0.137,
        -0.145,
        -0.031
    ],
    "target_max": [
        2.594,
        2.969,
        5.049,
        0.137,
        0.145,
        0.037
    ]
}