{
    "weights1": [
        [
            -0.05387154221534729,
            0.12384013831615448,
            0.04931875318288803,
            -0.4689355790615082,
            0.6083196401596069,
            -0.33822986483573914,
            0.08981595933437347,
            0.039067741483449936,
            0.03268200904130936
        ],
        [
            -0.0578775554895401,
            -0.09965906292200089,
            -0.16126053035259247,
            -0.29263535141944885,
            0.3927602469921112,
            0.7664775848388672,
            0.13870254158973694,
            0.11289162933826447,
            -0.184561625123024
        ],
        [
            -0.3059769868850708,
            0.3252106010913849,
            -0.16861413419246674,
            0.626232922077179,
            -0.38029947876930237,
            0.538082480430603,
            0.3001950681209564,
            0.21682283282279968,
            0.07106700539588928
        ],
        [
            -0.25967302918434143,
            0.3261808753013611,
            -0.20718416571617126,
            -0.6421992778778076,
            -0.07141811400651932,
            0.13964799046516418,
            0.27625417709350586,
            0.22572842240333557,
            0.1353253722190857
        ],
        [
            -0.07793472707271576,
            0.049704864621162415,
            -0.11094530671834946,
            0.0873810276389122,
            -0.8840718865394592,
            -0.43521854281425476,
            0.15910016000270844,
            0.17370550334453583,
            -0.15010908246040344
        ],
        [
            0.1780250370502472,
            -0.2782496511936188,
            0.1281278431415558,
            -0.47105422616004944,
            -0.5244074463844299,
            0.40581580996513367,
            -0.11927713453769684,
            -0.1578303426504135,
            -0.15488198399543762
        ]
    ],
    "bias1": [
        -0.05213330686092377,
        -0.020940514281392097,
        -0.10595327615737915,
        0.34689968824386597,
        -0.022293779999017715,
        -0.2858180105686188
    ],
    "weights2": [
        [
            0.7841244339942932,
            0.22069501876831055,
            -0.2994755506515503,
            -0.6634666919708252,
            0.38673049211502075,
            -0.43568509817123413
        ],
        [
            0.3457668721675873,
            -0.4308358430862427,
            -0.5994608998298645,
            0.7843633890151978,
            0.6117420792579651,
            0.19945548474788666
        ],
        [
            -0.3024532198905945,
            0.11829829961061478,
            0.09755345433950424,
            -0.4242517352104187,
            0.22848592698574066,
            -0.4081130027770996
        ],
        [
            -0.12627263367176056,
            -0.4406605660915375,
            -0.01965269446372986,
            -0.572878360748291,
            0.6918900012969971,
            -0.8968095779418945
        ],
        [
            0.04639430344104767,
            0.31231454014778137,
            -0.5601362586021423,
            -0.2292971909046173,
            0.3619227707386017,
            -0.7569790482521057
        ],
        [
            0.3550685942173004,
            0.3842492401599884,
            0.3379046320915222,
            -0.27049174904823303,
            -0.32984885573387146,
            -0.3001711070537567
        ]
    ],
    "bias2": [
        0.3412785232067108,
        -0.164071187376976,
        0.34097644686698914,
        0.07483706623315811,
        0.03009749762713909,
        0.2580694556236267
    ],
    "weightsOut": [
        [
            -0.008214046247303486,
            -0.7293604612350464,
            0.5786613821983337,
            0.6021536588668823,
            0.02998710609972477,
            0.018922679126262665
        ],
        [
            0.4564403295516968,
            -0.21660079061985016,
            -0.31880468130111694,
            -0.30646565556526184,
            0.7103664875030518,
            0.803342878818512
        ],
        [
            -0.07372522354125977,
            -0.6437090039253235,
            -0.16861633956432343,
            -0.3521482050418854,
            -0.6659765243530273,
            -0.009017311967909336
        ],
        [
            -0.588335394859314,
            0.13721342384815216,
            0.2053258717060089,
            0.154983252286911,
            -0.07724356651306152,
            -0.6619064211845398
        ],
        [
            0.2318560630083084,
            -0.33572471141815186,
            0.7757253050804138,
            0.28984910249710083,
            -0.25382089614868164,
            0.11938663572072983
        ],
        [
            -0.3154154419898987,
            0.020516688004136086,
            0.051632121205329895,
            -0.03329600766301155,
            0.44925326108932495,
            -0.055976539850234985
        ]
    ],
    "biasOut": [
        -0.1610444188117981,
        -0.22069299221038818,
        0.22067905962467194,
        0.18170790374279022,
        -0.27947500348091125,
        -0.10886240750551224
    ],
    "input_min": [
        -0.999997,
        -0.999324,
        -0.971721,
        -0.999741,
        -0.999619,
        -1.0,
        -0.99996,
        -0.999766,
        -0.975614
    ],
    "input_max": [
        0.993967,
        0.999925,
        0.994535,
        0.99941,
        0.992824,
        0.999971,
        0.990082,
        0.978694,
        0.999806
    ],
    "target_min": [
        -2.856,
        -2.741,
        -0.881,
        -0.137,
        -0.145,
        -0.031
    ],
    "target_max": [
        2.594,
        2.969,
        5.049,
        0.137,
        0.145,
        0.037
    ]
}