{
    "weights1": [
        [
            -0.2061707228422165,
            -0.07063763588666916,
            0.15863333642482758,
            0.06162573769688606,
            0.33267858624458313,
            -0.8782968521118164,
            -0.3277335464954376,
            0.4576009213924408,
            0.1163504347205162
        ],
        [
            0.008634976111352444,
            0.0111585957929492,
            -0.18197757005691528,
            -0.5623958110809326,
            -0.5702919960021973,
            0.03818109631538391,
            0.15591272711753845,
            -0.13128241896629333,
            -0.09898125380277634
        ],
        [
            0.03117557428777218,
            0.0794200599193573,
            -0.059091418981552124,
            0.5215827822685242,
            -0.482169508934021,
            0.6117997765541077,
            0.14529244601726532,
            -0.015218561515212059,
            -0.008186138235032558
        ],
        [
            -0.009093726985156536,
            -0.12552522122859955,
            -0.18451425433158875,
            0.4749385416507721,
            0.655872106552124,
            -0.5256955027580261,
            0.0009211122523993254,
            -0.07741456478834152,
            -0.06852451711893082
        ],
        [
            0.06858914345502853,
            0.1330462098121643,
            -0.08705694228410721,
            -0.1881696879863739,
            0.3002961277961731,
            0.37728697061538696,
            0.16994352638721466,
            0.08318507671356201,
            0.002767922356724739
        ],
        [
            0.15758821368217468,
            0.20176859200000763,
            -0.15820226073265076,
            0.1779828667640686,
            -0.41240671277046204,
            -0.6065633893013,
            0.28767794370651245,
            0.03934371471405029,
            0.0752401128411293
        ]
    ],
    "bias1": [
        -0.3182079493999481,
        -0.02225731499493122,
        0.10818161815404892,
        -0.14559580385684967,
        -0.3511948585510254,
        -0.01979231648147106
    ],
    "weights2": [
        [
            0.27823710441589355,
            0.15142260491847992,
            0.7350389361381531,
            -0.0532030425965786,
            -0.29395371675491333,
            -0.15641969442367554
        ],
        [
            0.3627423346042633,
            -0.01454092375934124,
            0.701407790184021,
            0.23151558637619019,
            -0.9192475080490112,
            0.5788887143135071
        ],
        [
            0.4031464159488678,
            -0.05454135686159134,
            -0.3692227900028229,
            0.1694403886795044,
            0.25205743312835693,
            0.1858198344707489
        ],
        [
            -0.404379278421402,
            -0.7633422613143921,
            0.5485479235649109,
            0.4199252724647522,
            0.1389874368906021,
            -0.35946154594421387
        ],
        [
            0.11269631236791611,
            -0.16130469739437103,
            -0.03178316727280617,
            -0.2662164568901062,
            -0.13813212513923645,
            0.06321603059768677
        ],
        [
            0.2611348032951355,
            -0.40930837392807007,
            0.045671723783016205,
            0.8255863189697266,
            -0.03815232962369919,
            0.6373565793037415
        ]
    ],
    "bias2": [
        0.09244061261415482,
        -0.13851259648799896,
        0.13029935956001282,
        -0.14175333082675934,
        0.13308380544185638,
        0.30262377858161926
    ],
    "weightsOut": [
        [
            0.5242436528205872,
            0.4478883147239685,
            -0.24778792262077332,
            0.7133769392967224,
            0.21530677378177643,
            0.5376524925231934
        ],
        [
            -0.6468872427940369,
            -0.6746907830238342,
            0.5548439621925354,
            0.6275750398635864,
            -0.2173902541399002,
            0.2912123501300812
        ],
        [
            0.13811051845550537,
            -0.30091726779937744,
            -0.45782896876335144,
            0.68337482213974,
            0.5348964333534241,
            -0.3766612708568573
        ],
        [
            0.7054252624511719,
            0.35923248529434204,
            -0.34914350509643555,
            -0.5255452990531921,
            0.16245338320732117,
            -0.10583219677209854
        ],
        [
            0.3779534697532654,
            0.4435909390449524,
            0.15302225947380066,
            0.5672691464424133,
            -0.23589737713336945,
            0.14034146070480347
        ],
        [
            0.35203808546066284,
            -0.043717656284570694,
            0.19808341562747955,
            -0.055328283458948135,
            -0.11023031175136566,
            0.031033305451273918
        ]
    ],
    "biasOut": [
        -0.1641789674758911,
        0.2542247176170349,
        -0.04726264625787735,
        -0.21689821779727936,
        -0.05647372454404831,
        -0.13171060383319855
    ],
    "input_min": [
        -0.999997,
        -0.999324,
        -0.971721,
        -0.999741,
        -0.999619,
        -1.0,
        -0.99996,
        -0.999766,
        -0.975614
    ],
    "input_max": [
        0.993967,
        0.999925,
        0.994535,
        0.99941,
        0.992824,
        0.999971,
        0.990082,
        0.978694,
        0.999806
    ],
    "target_min": [
        -2.856,
        -2.741,
        -0.881,
        -0.137,
        -0.145,
        -0.031
    ],
    "target_max": [
        2.594,
        2.969,
        5.049,
        0.137,
        0.145,
        0.037
    ]
}
