{
    "weights1": [
        [
            -0.14649216830730438,
            -0.04693588986992836,
            0.06772532314062119,
            -0.301179438829422,
            -0.5121992230415344,
            -0.4146648645401001,
            0.020654084160923958,
            -0.1514768749475479,
            -0.10692770779132843
        ],
        [
            -0.12028582394123077,
            0.007818969897925854,
            -0.17548631131649017,
            0.5789498686790466,
            0.4218471050262451,
            -0.3851155936717987,
            -0.01943555474281311,
            -0.2455740123987198,
            0.06558475643396378
        ],
        [
            -0.28070706129074097,
            -0.13969309628009796,
            -0.17910440266132355,
            0.36884400248527527,
            0.22516798973083496,
            -0.7145541906356812,
            -0.3345050513744354,
            0.43973034620285034,
            0.21132780611515045
        ],
        [
            0.26300355792045593,
            0.13621899485588074,
            -0.16043809056282043,
            0.5339717268943787,
            -0.34823575615882874,
            -0.6022263765335083,
            0.08416806161403656,
            -0.052183087915182114,
            0.028484543785452843
        ],
        [
            0.014017125591635704,
            -0.07769245654344559,
            0.04147552698850632,
            -0.5344668626785278,
            0.44594547152519226,
            -0.747220516204834,
            -0.002517630346119404,
            0.11365517973899841,
            -0.13505971431732178
        ],
        [
            0.08642563968896866,
            -0.05259032920002937,
            0.20628833770751953,
            0.39905908703804016,
            0.15565134584903717,
            0.07228212058544159,
            0.09206520020961761,
            -0.07037743180990219,
            -0.23920664191246033
        ]
    ],
    "bias1": [
        -0.11927764862775803,
        -0.2274666577577591,
        0.3445504605770111,
        0.33017998933792114,
        0.027222713455557823,
        0.1425672173500061
    ],
    "weights2": [
        [
            -0.3438831865787506,
            0.15602751076221466,
            -0.3980189859867096,
            -0.5882867574691772,
            0.33897295594215393,
            -0.4443698227405548
        ],
        [
            0.5054949522018433,
            -0.49146798253059387,
            -0.032770637422800064,
            -0.07019568979740143,
            0.4536670446395874,
            -0.6411206126213074
        ],
        [
            0.10234436392784119,
            0.05045657232403755,
            -0.014922140166163445,
            0.45764777064323425,
            0.27214503288269043,
            0.06694873422384262
        ],
        [
            0.3869341015815735,
            -0.3000869154930115,
            0.14476308226585388,
            0.451693058013916,
            -0.6375091075897217,
            0.16566964983940125
        ],
        [
            -0.4177217483520508,
            0.4089148938655853,
            0.5770629048347473,
            0.3842446506023407,
            0.7183988094329834,
            0.45529353618621826
        ],
        [
            -0.1906805783510208,
            0.07866917550563812,
            0.19162710011005402,
            -0.2283988893032074,
            -0.36936116218566895,
            0.2347782403230667
        ]
    ],
    "bias2": [
        0.34170207381248474,
        0.3648219704627991,
        0.11518564820289612,
        -0.08282069861888885,
        -0.3288039267063141,
        0.15852884948253632
    ],
    "weightsOut": [
        [
            -0.3797145485877991,
            -0.4740172028541565,
            -0.11971437186002731,
            0.557470440864563,
            0.4661293029785156,
            0.8077996373176575
        ],
        [
            0.975285530090332,
            -0.5726502537727356,
            -0.16206000745296478,
            -0.5020501613616943,
            0.5792341828346252,
            -0.17116661369800568
        ],
        [
            0.271960973739624,
            -0.6421974897384644,
            -0.46500927209854126,
            -0.17056502401828766,
            -0.657770574092865,
            0.4246617257595062
        ],
        [
            -0.47333696484565735,
            0.4094281792640686,
            -0.2387343943119049,
            0.6858631372451782,
            -0.16687780618667603,
            -0.1610509157180786
        ],
        [
            -0.6038011312484741,
            -0.46131446957588196,
            -0.534870445728302,
            0.13664737343788147,
            0.30052927136421204,
            0.13704568147659302
        ],
        [
            0.1431078165769577,
            0.17516390979290009,
            0.14113403856754303,
            0.21680116653442383,
            0.1299184262752533,
            0.29532817006111145
        ]
    ],
    "biasOut": [
        0.01669510081410408,
        0.19735021889209747,
        0.16421058773994446,
        -0.04675006493926048,
        0.1864747554063797,
        -0.245294988155365
    ],
    "input_min": [
        -0.999997,
        -0.999324,
        -0.971721,
        -0.999741,
        -0.999619,
        -1.0,
        -0.99996,
        -0.999766,
        -0.975614
    ],
    "input_max": [
        0.993967,
        0.999925,
        0.994535,
        0.99941,
        0.992824,
        0.999971,
        0.990082,
        0.978694,
        0.999806
    ],
    "target_min": [
        -2.856,
        -2.741,
        -0.881,
        -0.137,
        -0.145,
        -0.031
    ],
    "target_max": [
        2.594,
        2.969,
        5.049,
        0.137,
        0.145,
        0.037
    ]
}