{
    "weights1": [
        [
            -0.08211226016283035,
            -0.0871489867568016,
            -0.03776062652468681,
            0.19680917263031006,
            -0.26750844717025757,
            -0.11456864327192307,
            -0.1815139502286911,
            -0.060199838131666183,
            0.0597357302904129
        ],
        [
            0.00044982635881751776,
            0.004015419632196426,
            -0.052038125693798065,
            -0.40456268191337585,
            -0.529248058795929,
            -0.5018789172172546,
            -0.03758222609758377,
            0.019389217719435692,
            -0.0035184731241315603
        ],
        [
            0.15286116302013397,
            0.011678613722324371,
            -0.06496252864599228,
            0.6330521106719971,
            -0.7263952493667603,
            0.6270239353179932,
            0.021830294281244278,
            0.14676399528980255,
            -0.06801239401102066
        ],
        [
            0.09221204370260239,
            -0.09225345402956009,
            -0.06459400802850723,
            -0.15905241668224335,
            0.321812242269516,
            0.6211341023445129,
            -0.11334633082151413,
            -0.013484230265021324,
            -0.0656752809882164
        ],
        [
            0.06170022860169411,
            -0.1714305430650711,
            -0.044410284608602524,
            -0.6665348410606384,
            0.4041113555431366,
            0.021449441090226173,
            -0.260349303483963,
            0.11484060436487198,
            -0.01704135164618492
        ],
        [
            -0.022435126826167107,
            -0.030397042632102966,
            -0.08224290609359741,
            0.6773391366004944,
            0.6147709488868713,
            -0.8476722836494446,
            -0.046168647706508636,
            0.041564203798770905,
            0.019947325810790062
        ]
    ],
    "bias1": [
        0.2786305844783783,
        0.08177623897790909,
        0.15964755415916443,
        0.6164401769638062,
        0.5429286956787109,
        -0.001074396539479494
    ],
    "weights2": [
        [
            -0.638026773929596,
            -0.5611901879310608,
            -0.4596295952796936,
            0.2588198184967041,
            0.2962023615837097,
            -0.546036958694458
        ],
        [
            0.500639021396637,
            0.6465315818786621,
            -0.21090205013751984,
            0.1986091136932373,
            0.0028047498781234026,
            -0.6477190256118774
        ],
        [
            0.16736310720443726,
            0.04176202416419983,
            0.31884512305259705,
            0.08695705980062485,
            -0.3459770083427429,
            -0.6445440649986267
        ],
        [
            -0.30937424302101135,
            0.3714352250099182,
            0.332077294588089,
            -0.4734431803226471,
            -0.13138316571712494,
            -0.3709210455417633
        ],
        [
            0.40486273169517517,
            -0.8954285979270935,
            0.24142257869243622,
            0.4225326180458069,
            -0.5494472980499268,
            0.10227085649967194
        ],
        [
            -0.39942988753318787,
            0.31797659397125244,
            -0.14907388389110565,
            0.07759561389684677,
            -0.05844325199723244,
            -0.13663923740386963
        ]
    ],
    "bias2": [
        -0.12696509063243866,
        -0.10398828983306885,
        0.10402486473321915,
        -0.0512164942920208,
        -0.02996171824634075,
        -0.14795301854610443
    ],
    "weightsOut": [
        [
            -0.6187692880630493,
            -0.4659155309200287,
            0.14365939795970917,
            -0.13535107672214508,
            0.43458670377731323,
            -0.7904466986656189
        ],
        [
            0.638716995716095,
            -0.2703282833099365,
            -0.6139236092567444,
            -0.5210835337638855,
            0.1825023740530014,
            -0.04334375634789467
        ],
        [
            0.49528560042381287,
            0.312812477350235,
            0.7438515424728394,
            -0.48232996463775635,
            0.6854764819145203,
            0.0764729306101799
        ],
        [
            -0.36438292264938354,
            0.2294727861881256,
            0.3419553339481354,
            0.5242561101913452,
            -0.2348276674747467,
            -0.4711570739746094
        ],
        [
            -0.3863726258277893,
            -0.36378031969070435,
            0.0668887346982956,
            -0.02923322468996048,
            0.25383883714675903,
            -0.6707459688186646
        ],
        [
            0.10136554390192032,
            0.032602231949567795,
            -0.21628837287425995,
            0.3580179810523987,
            -0.08023244142532349,
            -0.6582387089729309
        ]
    ],
    "biasOut": [
        -0.20629465579986572,
        -0.06474630534648895,
        -0.14697755873203278,
        -0.006699515040963888,
        -0.1867271214723587,
        -0.12462957948446274
    ],
    "input_min": [
        -0.999997,
        -0.999324,
        -0.971721,
        -0.999741,
        -0.999619,
        -1.0,
        -0.99996,
        -0.999766,
        -0.975614
    ],
    "input_max": [
        0.993967,
        0.999925,
        0.994535,
        0.99941,
        0.992824,
        0.999971,
        0.990082,
        0.978694,
        0.999806
    ],
    "target_min": [
        -2.856,
        -2.741,
        -0.881,
        -0.137,
        -0.145,
        -0.031
    ],
    "target_max": [
        2.594,
        2.969,
        5.049,
        0.137,
        0.145,
        0.037
    ]
}